digraph Tree {
node [shape=box] ;
0 [label="social_status_Mr <= 0.5\nentropy = 0.96\nsamples = 889\nvalue = [549, 340]"] ;
1 [label="Pclass <= 0.75\nentropy = 0.887\nsamples = 371\nvalue = [113, 258]"] ;
0 -> 1 [labeldistance=2.5, labelangle=45, headlabel="True"] ;
2 [label="Sex <= 0.5\nentropy = 0.531\nsamples = 199\nvalue = [24, 175]"] ;
1 -> 2 ;
3 [label="Age <= 0.211\nentropy = 0.999\nsamples = 31\nvalue = [15, 16]"] ;
2 -> 3 ;
4 [label="entropy = 0.0\nsamples = 12\nvalue = [0, 12]"] ;
3 -> 4 ;
5 [label="entropy = 0.742\nsamples = 19\nvalue = [15, 4]"] ;
3 -> 5 ;
6 [label="Fare <= 0.056\nentropy = 0.301\nsamples = 168\nvalue = [9, 159]"] ;
2 -> 6 ;
7 [label="entropy = 0.469\nsamples = 70\nvalue = [7, 63]"] ;
6 -> 7 ;
8 [label="entropy = 0.144\nsamples = 98\nvalue = [2, 96]"] ;
6 -> 8 ;
9 [label="Fare <= 0.046\nentropy = 0.999\nsamples = 172\nvalue = [89, 83]"] ;
1 -> 9 ;
10 [label="Age <= 0.342\nentropy = 0.96\nsamples = 128\nvalue = [49, 79]"] ;
9 -> 10 ;
11 [label="entropy = 0.908\nsamples = 105\nvalue = [34, 71]"] ;
10 -> 11 ;
12 [label="entropy = 0.932\nsamples = 23\nvalue = [15, 8]"] ;
10 -> 12 ;
13 [label="Fare <= 0.064\nentropy = 0.439\nsamples = 44\nvalue = [40, 4]"] ;
9 -> 13 ;
14 [label="entropy = 0.592\nsamples = 28\nvalue = [24, 4]"] ;
13 -> 14 ;
15 [label="entropy = 0.0\nsamples = 16\nvalue = [16, 0]"] ;
13 -> 15 ;
16 [label="Fare <= 0.051\nentropy = 0.63\nsamples = 518\nvalue = [436, 82]"] ;
0 -> 16 [labeldistance=2.5, labelangle=-45, headlabel="False"] ;
17 [label="Age <= 0.405\nentropy = 0.469\nsamples = 390\nvalue = [351, 39]"] ;
16 -> 17 ;
18 [label="Age <= 0.358\nentropy = 0.515\nsamples = 287\nvalue = [254, 33]"] ;
17 -> 18 ;
19 [label="entropy = 0.432\nsamples = 237\nvalue = [216, 21]"] ;
18 -> 19 ;
20 [label="entropy = 0.795\nsamples = 50\nvalue = [38, 12]"] ;
18 -> 20 ;
21 [label="Fare <= 0.015\nentropy = 0.32\nsamples = 103\nvalue = [97, 6]"] ;
17 -> 21 ;
22 [label="entropy = 0.0\nsamples = 37\nvalue = [37, 0]"] ;
21 -> 22 ;
23 [label="entropy = 0.439\nsamples = 66\nvalue = [60, 6]"] ;
21 -> 23 ;
24 [label="Fare <= 0.052\nentropy = 0.921\nsamples = 128\nvalue = [85, 43]"] ;
16 -> 24 ;
25 [label="Age <= 0.506\nentropy = 0.896\nsamples = 16\nvalue = [5, 11]"] ;
24 -> 25 ;
26 [label="entropy = 0.544\nsamples = 8\nvalue = [1, 7]"] ;
25 -> 26 ;
27 [label="entropy = 1.0\nsamples = 8\nvalue = [4, 4]"] ;
25 -> 27 ;
28 [label="cabin_type_99 <= 0.5\nentropy = 0.863\nsamples = 112\nvalue = [80, 32]"] ;
24 -> 28 ;
29 [label="entropy = 0.952\nsamples = 70\nvalue = [44, 26]"] ;
28 -> 29 ;
30 [label="entropy = 0.592\nsamples = 42\nvalue = [36, 6]"] ;
28 -> 30 ;
}